<?xml version="1.0"?>
<opencv_storage>
<cascade>
  <stageType>BOOST</stageType>
  <featureType>LBP</featureType>
  <height>80</height>
  <width>60</width>
  <stageParams>
    <boostType>GAB</boostType>
    <minHitRate>9.9900001287460327e-01</minHitRate>
    <maxFalseAlarm>5.0000000000000000e-01</maxFalseAlarm>
    <weightTrimRate>9.4999999999999996e-01</weightTrimRate>
    <maxDepth>1</maxDepth>
    <maxWeakCount>100</maxWeakCount></stageParams>
  <featureParams>
    <maxCatCount>256</maxCatCount>
    <featSize>1</featSize></featureParams>
  <stageNum>20</stageNum>
  <stages>
    <!-- stage 0 -->
    <_>
      <maxWeakCount>3</maxWeakCount>
      <stageThreshold>-9.7679382562637329e-01</stageThreshold>
      <weakClassifiers>
        <_>
          <internalNodes>
            0 -1 57 -804728632 -787381120 -2147483564 -216854463
            -1040135542 -2004844544 2146523 1717539515</internalNodes>
          <leafValues>
            -9.0744465589523315e-01 5.8208954334259033e-01</leafValues></_>
        <_>
          <internalNodes>
            0 -1 41 -762164999 -1023344382 50397273 -268210157
            -2012665832 -1207957376 -2108128293 -551843685</internalNodes>
          <leafValues>
            -7.4147069454193115e-01 6.3039511442184448e-01</leafValues></_>
        <_>
          <internalNodes>
            0 -1 70 -578693686 -100499136 11 -251539455 -2146840369
            -1971322836 557531 -752664343</internalNodes>
          <leafValues>
            -6.9914442300796509e-01 6.7212158441543579e-01</leafValues></_></weakClassifiers></_>
    <!-- stage 1 -->
    <_>
      <maxWeakCount>4</maxWeakCount>
      <stageThreshold>-1.5863786935806274e+00</stageThreshold>
      <weakClassifiers>
        <_>
          <internalNodes>
            0 -1 29 -645144338 -921386470 -2147351930 -720158576
            -1373050706 545360579 76187790 1194037663</internalNodes>
          <leafValues>
            -9.1543340682983398e-01 5.3110045194625854e-01</leafValues></_>
        <_>
          <internalNodes>
            0 -1 1 -662446129 -582778880 -1610547191 134692929
            -536753973 -1744138240 575627 -133250902</internalNodes>
          <leafValues>
            -7.1327006816864014e-01 6.8930757045745850e-01</leafValues></_>
        <_>
          <internalNodes>
            0 -1 90 -2305840 -733004792 -1326654271 -685943024
            -856368944 -966818227 -1038438758 -4465444</internalNodes>
          <leafValues>
            -6.3609319925308228e-01 7.4817776679992676e-01</leafValues></_>
        <_>
          <internalNodes>
            0 -1 7 -689909044 -754249664 -1878719471 -1072610751
            -2097099090 1258455042 -2147433826 -1783907413</internalNodes>
          <leafValues>
            -7.5389957427978516e-01 6.7841798067092896e-01</leafValues></_></weakClassifiers></_>
    <!-- stage 2 -->
    <_>
      <maxWeakCount>5</maxWeakCount>
      <stageThreshold>-1.0337699651718140e+00</stageThreshold>
      <weakClassifiers>
        <_>
          <internalNodes>
            0 -1 17 -199763969 -648085244 -1870245155 -1940688613
            -662119749 -115240440 -1031756901 -1976782071</internalNodes>
          <leafValues>
            -7.2125434875488281e-01 5.9695816040039062e-01</leafValues></_>
        <_>
          <internalNodes>
            0 -1 27 -883570468 -669163443 813764672 1766883603
            -188626258 -1205698400 -131890689 -1088644926</internalNodes>
          <leafValues>
            -7.2489786148071289e-01 5.3650748729705811e-01</leafValues></_>
        <_>
          <internalNodes>
            0 -1 42 -1603355409 -506641847 -2124332585 1896471833
            -930573752 -198498168 -1994225478 -699325583</internalNodes>
          <leafValues>
            -7.4981993436813354e-01 5.2618885040283203e-01</leafValues></_>
        <_>
          <internalNodes>
            0 -1 56 -117350696 -179056638 -2141080185 -385629933
            -643788594 -930699264 1809170927 -1758785301</internalNodes>
          <leafValues>
            -7.1540707349777222e-01 5.2572047710418701e-01</leafValues></_>
        <_>
          <internalNodes>
            0 -1 89 -213409576 290652160 268750848 822411416 -1979281254
            -1610088448 -1056931382 -1977899350</internalNodes>
          <leafValues>
            -6.3952714204788208e-01 6.4959299564361572e-01</leafValues></_></weakClassifiers></_>
    <!-- stage 3 -->
    <_>
      <maxWeakCount>4</maxWeakCount>
      <stageThreshold>-5.6500101089477539e-01</stageThreshold>
      <weakClassifiers>
        <_>
          <internalNodes>
            0 -1 39 -1012677427 -838643698 268962001 -1726234485
            -1468002212 -351600470 286064312 -1080325681</internalNodes>
          <leafValues>
            -7.2675520181655884e-01 4.9389180541038513e-01</leafValues></_>
        <_>
          <internalNodes>
            0 -1 21 -993349396 -213511966 24650 680728975 -1970304870
            -377634030 -181938556 -32566801</internalNodes>
          <leafValues>
            -8.6499124765396118e-01 3.8973954319953918e-01</leafValues></_>
        <_>
          <internalNodes>
            0 -1 31 -364056641 -1695748688 2130477055 1534005753
            -1342177281 -747618561 369030652 -1612466769</internalNodes>
          <leafValues>
            -5.6605386734008789e-01 6.3469922542572021e-01</leafValues></_>
        <_>
          <internalNodes>
            0 -1 81 -1475608346 -1052720471 562233347 272712913
            -1207268274 -787431292 -1216036177 1095895123</internalNodes>
          <leafValues>
            -8.2860082387924194e-01 4.8052597045898438e-01</leafValues></_></weakClassifiers></_>
    <!-- stage 4 -->
    <_>
      <maxWeakCount>6</maxWeakCount>
      <stageThreshold>-6.3294905424118042e-01</stageThreshold>
      <weakClassifiers>
        <_>
          <internalNodes>
            0 -1 22 -94974747 -284757952 -1785079707 -1750661985
            -524101246 -287158254 -1944262404 -1256740162</internalNodes>
          <leafValues>
            -7.4793386459350586e-01 4.2532467842102051e-01</leafValues></_>
        <_>
          <internalNodes>
            0 -1 90 -774483752 -796000252 268435600 1405829649
            -1065303974 8454272 -1475827045 -7346017</internalNodes>
          <leafValues>
            -6.0906201601028442e-01 5.7976764440536499e-01</leafValues></_>
        <_>
          <internalNodes>
            0 -1 82 -391448520 -80918136 2129654010 -10541335 -252990742
            -552108194 2118999487 -741690181</internalNodes>
          <leafValues>
            -5.4711169004440308e-01 6.4225006103515625e-01</leafValues></_>
        <_>
          <internalNodes>
            0 -1 19 -333458182 -980819420 -91518884 -591257197
            -523906673 -1459574716 -133645333 -988762066</internalNodes>
          <leafValues>
            -7.4981373548507690e-01 5.0806432962417603e-01</leafValues></_>
        <_>
          <internalNodes>
            0 -1 62 -204415900 -671055858 1157673232 1833234995
            570610432 -2112257792 1797501227 24058331</internalNodes>
          <leafValues>
            -8.9178425073623657e-01 4.0012112259864807e-01</leafValues></_>
        <_>
          <internalNodes>
            0 -1 28 -666378273 -636088234 -1257022546 -2145238719
            -242870066 -1717501805 -2096004686 -951147330</internalNodes>
          <leafValues>
            -6.9252640008926392e-01 5.5066829919815063e-01</leafValues></_></weakClassifiers></_>
    <!-- stage 5 -->
    <_>
      <maxWeakCount>4</maxWeakCount>
      <stageThreshold>-6.0650193691253662e-01</stageThreshold>
      <weakClassifiers>
        <_>
          <internalNodes>
            0 -1 63 986929663 1858335366 -1048522315 -578250934
            -1571594195 -779501367 487087447 -678767123</internalNodes>
          <leafValues>
            -6.8715083599090576e-01 4.7779750823974609e-01</leafValues></_>
        <_>
          <internalNodes>
            0 -1 11 -289008965 -745252083 538120705 -2080157363
            -2000283573 -292913064 -648884027 -569196348</internalNodes>
          <leafValues>
            -7.1205818653106689e-01 4.5280882716178894e-01</leafValues></_>
        <_>
          <internalNodes>
            0 -1 76 -173751568 1359708184 268574848 889786507
            -1308579589 1669337090 1610856834 2064076810</internalNodes>
          <leafValues>
            -7.1685779094696045e-01 4.5236861705780029e-01</leafValues></_>
        <_>
          <internalNodes>
            0 -1 47 -1031546270 -483065710 -1861020654 2008142943
            -1958049652 730398726 354541961 1393527939</internalNodes>
          <leafValues>
            -8.2025051116943359e-01 4.4028088450431824e-01</leafValues></_></weakClassifiers></_>
    <!-- stage 6 -->
    <_>
      <maxWeakCount>4</maxWeakCount>
      <stageThreshold>-5.8577615022659302e-01</stageThreshold>
      <weakClassifiers>
        <_>
          <internalNodes>
            0 -1 16 321309613 -1439034954 404822265 -250406725
            -1694065974 -876928894 1350719668 -1775344583</internalNodes>
          <leafValues>
            -7.1546393632888794e-01 4.0162602066993713e-01</leafValues></_>
        <_>
          <internalNodes>
            0 -1 54 -710000536 -114913024 -733375001 -249835213
            -1287001332 -939392758 1887483323 -947316419</internalNodes>
          <leafValues>
            -8.0469638109207153e-01 3.7371471524238586e-01</leafValues></_>
        <_>
          <internalNodes>
            0 -1 96 1057931416 -2121072576 1074368581 1561796625
            -1181175156 -376963072 520148443 -83106903</internalNodes>
          <leafValues>
            -5.7319819927215576e-01 5.4546982049942017e-01</leafValues></_>
        <_>
          <internalNodes>
            0 -1 46 -484030285 1615040574 135270611 1519067931
            -669337276 -16580591 -2130648272 -1658092908</internalNodes>
          <leafValues>
            -7.2817558050155640e-01 5.2029788494110107e-01</leafValues></_></weakClassifiers></_>
    <!-- stage 7 -->
    <_>
      <maxWeakCount>5</maxWeakCount>
      <stageThreshold>-8.6176401376724243e-01</stageThreshold>
      <weakClassifiers>
        <_>
          <internalNodes>
            0 -1 52 -45070367 1461752852 -1995863760 -800550893
            757266758 -335099855 1779445818 -787816449</internalNodes>
          <leafValues>
            -6.9583332538604736e-01 3.7741935253143311e-01</leafValues></_>
        <_>
          <internalNodes>
            0 -1 83 -538993414 -33967744 1954277329 -609800149
            -1138111776 -886647406 377287675 -14730817</internalNodes>
          <leafValues>
            -4.8455271124839783e-01 6.6238647699356079e-01</leafValues></_>
        <_>
          <internalNodes>
            0 -1 75 -211828500 -213253209 -1844031453 2058551297
            403227214 -1600995253 -1282800945 -1656628189</internalNodes>
          <leafValues>
            -5.4659950733184814e-01 5.8365839719772339e-01</leafValues></_>
        <_>
          <internalNodes>
            0 -1 10 1738132993 -1341595133 302069897 -663449513
            -1559524344 1342185475 1531537807 -212150081</internalNodes>
          <leafValues>
            -5.7773691415786743e-01 5.6039535999298096e-01</leafValues></_>
        <_>
          <internalNodes>
            0 -1 33 1429244896 1426362948 856871620 -2083646952 67287882
            -1450901463 276947678 -1257682619</internalNodes>
          <leafValues>
            -7.6055210828781128e-01 4.6322607994079590e-01</leafValues></_></weakClassifiers></_>
    <!-- stage 8 -->
    <_>
      <maxWeakCount>6</maxWeakCount>
      <stageThreshold>-5.6334334611892700e-01</stageThreshold>
      <weakClassifiers>
        <_>
          <internalNodes>
            0 -1 69 944578303 686461213 -1810787939 534139142 402994597
            412001154 -1709602433 -1686109971</internalNodes>
          <leafValues>
            -7.0221328735351562e-01 4.1293531656265259e-01</leafValues></_>
        <_>
          <internalNodes>
            0 -1 74 -1471470881 -1064868613 -2061641465 -582229883
            38458060 -1886747735 -565386569 -697257536</internalNodes>
          <leafValues>
            -6.0427129268646240e-01 4.9239379167556763e-01</leafValues></_>
        <_>
          <internalNodes>
            0 -1 37 -732786441 -1065003648 1283461302 465339405
            -2105348017 -2146983925 277930124 -1693469605</internalNodes>
          <leafValues>
            -5.9656965732574463e-01 5.5000907182693481e-01</leafValues></_>
        <_>
          <internalNodes>
            0 -1 95 -1195191670 1368981570 -805072726 1431666752
            188788738 33620104 188875 492794014</internalNodes>
          <leafValues>
            -6.5668678283691406e-01 5.2868157625198364e-01</leafValues></_>
        <_>
          <internalNodes>
            0 -1 64 -1866460328 -754830955 173431405 -181555189
            -671045473 -1174263296 -1702760093 -818685876</internalNodes>
          <leafValues>
            -7.2449851036071777e-01 4.4777280092239380e-01</leafValues></_>
        <_>
          <internalNodes>
            0 -1 6 1820530711 -640115452 1086429203 2095616336
            1974160012 956598530 -70614625 -1740135799</internalNodes>
          <leafValues>
            -6.7628586292266846e-01 5.0987815856933594e-01</leafValues></_></weakClassifiers></_>
    <!-- stage 9 -->
    <_>
      <maxWeakCount>6</maxWeakCount>
      <stageThreshold>-7.6762408018112183e-01</stageThreshold>
      <weakClassifiers>
        <_>
          <internalNodes>
            0 -1 80 100484572 -354588228 1963057155 -634937215
            -1305509568 774054053 413919699 530298079</internalNodes>
          <leafValues>
            -8.4090906381607056e-01 2.6203209161758423e-01</leafValues></_>
        <_>
          <internalNodes>
            0 -1 30 -498796545 193753152 -1877997482 1528631321
            -2036931647 -662536182 -1862154830 462141901</internalNodes>
          <leafValues>
            -6.3571691513061523e-01 4.1142806410789490e-01</leafValues></_>
        <_>
          <internalNodes>
            0 -1 20 -1554978992 -912993519 1158772005 1167589910
            715497932 -1006581182 555852534 -27395100</internalNodes>
          <leafValues>
            -6.4699977636337280e-01 4.2558941245079041e-01</leafValues></_>
        <_>
          <internalNodes>
            0 -1 93 -1684082504 -1006403456 269587737 1593917983
            -1870485086 -1985445375 547522987 -1149288245</internalNodes>
          <leafValues>
            -5.3844803571701050e-01 5.8557105064392090e-01</leafValues></_>
        <_>
          <internalNodes>
            0 -1 92 -1395670818 340807941 539011872 -1069414096
            841644294 -805295998 -385154321 -402304331</internalNodes>
          <leafValues>
            -6.8123823404312134e-01 4.7972381114959717e-01</leafValues></_>
        <_>
          <internalNodes>
            0 -1 100 -1958375208 -1610350582 1342243083 -192921596
            2013317509 -662666540 -1609768486 1867145359</internalNodes>
          <leafValues>
            -6.4698731899261475e-01 5.0797015428543091e-01</leafValues></_></weakClassifiers></_>
    <!-- stage 10 -->
    <_>
      <maxWeakCount>6</maxWeakCount>
      <stageThreshold>-5.5398494005203247e-01</stageThreshold>
      <weakClassifiers>
        <_>
          <internalNodes>
            0 -1 71 -274315141 -250674944 -1006303429 -91238096
            -1425349814 -1639308725 109487 -643049201</internalNodes>
          <leafValues>
            -5.4267311096191406e-01 4.9478077888488770e-01</leafValues></_>
        <_>
          <internalNodes>
            0 -1 72 -1426961185 -1559052262 84436317 -243259252
            -483694872 -1022489466 1073756760 -612365800</internalNodes>
          <leafValues>
            -7.1428257226943970e-01 4.0166756510734558e-01</leafValues></_>
        <_>
          <internalNodes>
            0 -1 66 -1305024922 -164609680 -1529802549 1418645888
            -2096812653 -901601280 1367695314 -704943321</internalNodes>
          <leafValues>
            -6.5382665395736694e-01 4.3909782171249390e-01</leafValues></_>
        <_>
          <internalNodes>
            0 -1 85 336734050 538182408 269554001 -916979628 51237779
            -1999994696 1641259736 2073002657</internalNodes>
          <leafValues>
            -6.8730723857879639e-01 4.5134389400482178e-01</leafValues></_>
        <_>
          <internalNodes>
            0 -1 32 -766027679 -804089577 1409446967 -1816354022
            614786956 -936935391 579035258 -1546947778</internalNodes>
          <leafValues>
            -6.0417586565017700e-01 4.9908342957496643e-01</leafValues></_>
        <_>
          <internalNodes>
            0 -1 14 -628842407 1981669376 -213893072 -1186713600
            -1474275701 1348211858 -1861744243 -1965839781</internalNodes>
          <leafValues>
            -5.8535712957382202e-01 5.5900841951370239e-01</leafValues></_></weakClassifiers></_>
    <!-- stage 11 -->
    <_>
      <maxWeakCount>6</maxWeakCount>
      <stageThreshold>-5.5215704441070557e-01</stageThreshold>
      <weakClassifiers>
        <_>
          <internalNodes>
            0 -1 59 1980929333 1613895474 1006767185 -1634986499
            674905017 -1971166837 420925809 328730823</internalNodes>
          <leafValues>
            -7.7057355642318726e-01 2.9899856448173523e-01</leafValues></_>
        <_>
          <internalNodes>
            0 -1 91 -11542394 -284217903 -2002840355 -1083207237
            -1372674934 -1655042 -1768377653 -14712326</internalNodes>
          <leafValues>
            -5.0480490922927856e-01 5.8038532733917236e-01</leafValues></_>
        <_>
          <internalNodes>
            0 -1 43 -2079331334 -127926264 1379992594 2105611652
            -1476353654 1091047468 -1895726686 1267415192</internalNodes>
          <leafValues>
            -6.5659946203231812e-01 4.6520745754241943e-01</leafValues></_>
        <_>
          <internalNodes>
            0 -1 4 -599203700 -887433899 1124160785 438768410
            -2138288676 -1995800571 -1182659919 -535916026</internalNodes>
          <leafValues>
            -7.0015275478363037e-01 4.7993060946464539e-01</leafValues></_>
        <_>
          <internalNodes>
            0 -1 97 -1437303559 1897381907 -1316919851 1435632448
            -2145324596 -582745983 696849050 -1080673620</internalNodes>
          <leafValues>
            -5.7962822914123535e-01 5.4721808433532715e-01</leafValues></_>
        <_>
          <internalNodes>
            0 -1 26 813676226 521398311 -402063032 152155560 1082769550
            -1316159231 1518549869 -906397891</internalNodes>
          <leafValues>
            -6.1696743965148926e-01 5.5205935239791870e-01</leafValues></_></weakClassifiers></_>
    <!-- stage 12 -->
    <_>
      <maxWeakCount>6</maxWeakCount>
      <stageThreshold>-1.2818461656570435e+00</stageThreshold>
      <weakClassifiers>
        <_>
          <internalNodes>
            0 -1 23 867783388 -791084710 1141005834 1268884507
            2073180202 809632187 -242485477 -99677797</internalNodes>
          <leafValues>
            -7.1889400482177734e-01 3.1831830739974976e-01</leafValues></_>
        <_>
          <internalNodes>
            0 -1 90 -564333966 -717055863 1077973351 -778743548
            -1870212904 -490731944 -1962301286 -6300946</internalNodes>
          <leafValues>
            -5.0915992259979248e-01 5.6219214200973511e-01</leafValues></_>
        <_>
          <internalNodes>
            0 -1 78 591745263 -589764575 1929484049 -540898402
            -610049104 1362341931 -863695107 -1752652943</internalNodes>
          <leafValues>
            -5.7000106573104858e-01 5.2788829803466797e-01</leafValues></_>
        <_>
          <internalNodes>
            0 -1 83 -786697526 -774143864 1342439434 -721317862
            -1744731975 4325392 914794634 1898667531</internalNodes>
          <leafValues>
            -6.1627709865570068e-01 5.2779853343963623e-01</leafValues></_>
        <_>
          <internalNodes>
            0 -1 9 1515906697 -1845227259 272699673 -461176827
            -1878933170 -1249902592 -1316126297 -1376788103</internalNodes>
          <leafValues>
            -5.6510943174362183e-01 5.6577193737030029e-01</leafValues></_>
        <_>
          <internalNodes>
            0 -1 88 1967931530 -216776496 -1056620138 1946484819
            -232089444 -2136211294 294173579 -1949628294</internalNodes>
          <leafValues>
            -6.1730837821960449e-01 5.5351972579956055e-01</leafValues></_></weakClassifiers></_>
    <!-- stage 13 -->
    <_>
      <maxWeakCount>6</maxWeakCount>
      <stageThreshold>-7.4884539842605591e-01</stageThreshold>
      <weakClassifiers>
        <_>
          <internalNodes>
            0 -1 99 -2053566121 1209827633 1544653201 -1305363695
            -2111711218 -1116763766 184867722 -75852928</internalNodes>
          <leafValues>
            -5.6655287742614746e-01 4.5136186480522156e-01</leafValues></_>
        <_>
          <internalNodes>
            0 -1 40 1061410793 1562650536 1896592044 -1856359649
            -215991480 143376578 8828507 109974637</internalNodes>
          <leafValues>
            -7.3479396104812622e-01 3.5686394572257996e-01</leafValues></_>
        <_>
          <internalNodes>
            0 -1 79 19393994 -493435699 -1702067727 314736928 -358067725
            629162113 -962375536 1575939734</internalNodes>
          <leafValues>
            -6.8751555681228638e-01 4.0652641654014587e-01</leafValues></_>
        <_>
          <internalNodes>
            0 -1 25 -1441528843 -839780335 -662599487 -1013653428
            1251027978 1662304257 576352320 -1094950102</internalNodes>
          <leafValues>
            -6.6891330480575562e-01 4.6136018633842468e-01</leafValues></_>
        <_>
          <internalNodes>
            0 -1 98 -1979261766 273057280 -2013056253 -2096721374
            -2121743683 -1065254880 -2130472574 219009674</internalNodes>
          <leafValues>
            -6.6555213928222656e-01 4.1885456442832947e-01</leafValues></_>
        <_>
          <internalNodes>
            0 -1 73 -745811746 1620525662 1108377600 1124073552
            1074373632 1086341254 272663331 366510634</internalNodes>
          <leafValues>
            -6.5811246633529663e-01 4.9968579411506653e-01</leafValues></_></weakClassifiers></_>
    <!-- stage 14 -->
    <_>
      <maxWeakCount>5</maxWeakCount>
      <stageThreshold>-8.4920257329940796e-01</stageThreshold>
      <weakClassifiers>
        <_>
          <internalNodes>
            0 -1 55 2134119345 -292081214 -1616582487 -603537347
            2043181013 -2121610344 1368979515 -136702819</internalNodes>
          <leafValues>
            -6.6806721687316895e-01 3.4935897588729858e-01</leafValues></_>
        <_>
          <internalNodes>
            0 -1 2 441695231 899137570 -2142564323 -1206581879
            -485340214 -669937272 -1851170680 -662157254</internalNodes>
          <leafValues>
            -6.2138849496841431e-01 4.2490312457084656e-01</leafValues></_>
        <_>
          <internalNodes>
            0 -1 51 -1025193743 -1598680367 -1543285503 1008351365
            -226397931 -96428031 -2130055055 -1927608521</internalNodes>
          <leafValues>
            -6.6259807348251343e-01 4.2930364608764648e-01</leafValues></_>
        <_>
          <internalNodes>
            0 -1 24 1108246399 2082944610 -16781449 -134269501
            -1073938434 -134382721 -2097349124 -1712333334</internalNodes>
          <leafValues>
            -4.2338576912879944e-01 7.1806359291076660e-01</leafValues></_>
        <_>
          <internalNodes>
            0 -1 65 1519501965 1615020033 1879114817 -216849854
            1644364902 163909762 312478666 -1741692350</internalNodes>
          <leafValues>
            -5.3748083114624023e-01 5.6603199243545532e-01</leafValues></_></weakClassifiers></_>
    <!-- stage 15 -->
    <_>
      <maxWeakCount>6</maxWeakCount>
      <stageThreshold>-5.9113001823425293e-01</stageThreshold>
      <weakClassifiers>
        <_>
          <internalNodes>
            0 -1 15 1664478176 1341562960 -1342153309 -1042771965
            -1190423866 -1383198415 537182578 869259335</internalNodes>
          <leafValues>
            -7.5384616851806641e-01 2.7323943376541138e-01</leafValues></_>
        <_>
          <internalNodes>
            0 -1 13 -2107976705 -1265535078 34081044 1911263560
            -75463780 352469062 -1985705944 1609391292</internalNodes>
          <leafValues>
            -6.1206835508346558e-01 3.9119428396224976e-01</leafValues></_>
        <_>
          <internalNodes>
            0 -1 12 -1776136516 2107072414 84401304 -293115757
            1159627524 655591448 -1755915557 512945970</internalNodes>
          <leafValues>
            -7.4743711948394775e-01 3.5345780849456787e-01</leafValues></_>
        <_>
          <internalNodes>
            0 -1 87 -1150067111 -1157669121 -8737 -808001572 1593341134
            -713197842 -1076043777 -136610082</internalNodes>
          <leafValues>
            -4.8488599061965942e-01 6.1118358373641968e-01</leafValues></_>
        <_>
          <internalNodes>
            0 -1 49 -2092747941 -477021567 1075097696 -108609251
            -753995758 -939056577 429040403 500585350</internalNodes>
          <leafValues>
            -6.2284243106842041e-01 4.5391938090324402e-01</leafValues></_>
        <_>
          <internalNodes>
            0 -1 67 -416818850 -34013256 2146762228 2021357563
            -1421869494 2094855453 -189292983 1913250547</internalNodes>
          <leafValues>
            -4.7715994715690613e-01 6.7124587297439575e-01</leafValues></_></weakClassifiers></_>
    <!-- stage 16 -->
    <_>
      <maxWeakCount>6</maxWeakCount>
      <stageThreshold>-5.5852735042572021e-01</stageThreshold>
      <weakClassifiers>
        <_>
          <internalNodes>
            0 -1 18 -1621142689 47371638 202440744 -1160608189 608307979
            200874 -1182784584 -590830900</internalNodes>
          <leafValues>
            -6.6233766078948975e-01 3.2288402318954468e-01</leafValues></_>
        <_>
          <internalNodes>
            0 -1 61 -1328359697 1427152985 1207982611 -1058191191
            -214699449 -502934838 -1186354828 -887000719</internalNodes>
          <leafValues>
            -5.2345353364944458e-01 4.9670347571372986e-01</leafValues></_>
        <_>
          <internalNodes>
            0 -1 91 -552623889 -280678956 161457628 657346995 774874510
            -1130754 -1365708646 -39861765</internalNodes>
          <leafValues>
            -4.4556158781051636e-01 6.1220914125442505e-01</leafValues></_>
        <_>
          <internalNodes>
            0 -1 50 -1362821125 -714604022 -1186523806 -977139453
            -1279204776 1290469387 -243166828 521084975</internalNodes>
          <leafValues>
            -5.6298273801803589e-01 5.1915431022644043e-01</leafValues></_>
        <_>
          <internalNodes>
            0 -1 5 -581397924 1637419137 -134134767 650665985 153625336
            -1744788990 -787051755 -850752310</internalNodes>
          <leafValues>
            -7.5034821033477783e-01 4.2471972107887268e-01</leafValues></_>
        <_>
          <internalNodes>
            0 -1 48 1615291502 -1740618736 -1072316142 -813170431
            -2013244017 -1870626741 612401802 597414835</internalNodes>
          <leafValues>
            -6.7699301242828369e-01 4.7909387946128845e-01</leafValues></_></weakClassifiers></_>
    <!-- stage 17 -->
    <_>
      <maxWeakCount>7</maxWeakCount>
      <stageThreshold>-9.3134868144989014e-01</stageThreshold>
      <weakClassifiers>
        <_>
          <internalNodes>
            0 -1 53 270694397 1786458899 -2121131349 -586115062
            -1718933575 -2087613556 70073169 1796989062</internalNodes>
          <leafValues>
            -6.4091855287551880e-01 3.3333334326744080e-01</leafValues></_>
        <_>
          <internalNodes>
            0 -1 86 277066194 -1542402621 -1827078054 1144133634
            -2088265313 1595998371 -1479900724 859443368</internalNodes>
          <leafValues>
            -7.4271535873413086e-01 3.2504791021347046e-01</leafValues></_>
        <_>
          <internalNodes>
            0 -1 34 884335991 -799170504 -2146954579 -2125635326
            553223369 -2135391681 -1445506820 -70782071</internalNodes>
          <leafValues>
            -4.8580759763717651e-01 5.5653446912765503e-01</leafValues></_>
        <_>
          <internalNodes>
            0 -1 44 1078680115 142094528 263260 1602651041 -2120073209
            1099047457 172229300 -2009229309</internalNodes>
          <leafValues>
            -5.5243575572967529e-01 5.2408742904663086e-01</leafValues></_>
        <_>
          <internalNodes>
            0 -1 68 -1235959585 -720228205 339772061 -448712415
            1932210714 -2146917270 -499076306 -1052174202</internalNodes>
          <leafValues>
            -5.9591329097747803e-01 4.7919076681137085e-01</leafValues></_>
        <_>
          <internalNodes>
            0 -1 102 959429489 -341114886 1811922807 -2022719503
            -1412038679 -553648146 -1611391523 -537059459</internalNodes>
          <leafValues>
            -5.0263762474060059e-01 6.3700056076049805e-01</leafValues></_>
        <_>
          <internalNodes>
            0 -1 8 -335564931 -285213016 922447471 -294036883 -4194305
            -268435556 58163165 -1109275899</internalNodes>
          <leafValues>
            -5.2803969383239746e-01 5.9633249044418335e-01</leafValues></_></weakClassifiers></_>
    <!-- stage 18 -->
    <_>
      <maxWeakCount>6</maxWeakCount>
      <stageThreshold>-1.0971150398254395e+00</stageThreshold>
      <weakClassifiers>
        <_>
          <internalNodes>
            0 -1 58 1487822115 -608804545 -803085428 -1823558926
            -1303666365 457801856 588636317 -2044802200</internalNodes>
          <leafValues>
            -6.3674318790435791e-01 3.3011272549629211e-01</leafValues></_>
        <_>
          <internalNodes>
            0 -1 94 -1844196911 571756857 421069178 -1154105326
            177778905 -1743124415 -1072672341 -1086318432</internalNodes>
          <leafValues>
            -4.8219332098960876e-01 5.4317504167556763e-01</leafValues></_>
        <_>
          <internalNodes>
            0 -1 60 1770341836 -1131347446 1887544920 -243669349
            -1325205175 797514387 824832047 -1346143101</internalNodes>
          <leafValues>
            -6.5066891908645630e-01 4.3613976240158081e-01</leafValues></_>
        <_>
          <internalNodes>
            0 -1 101 -1355433029 -186318872 2012724023 -244893774
            762690043 -272760835 -1812201986 -537026832</internalNodes>
          <leafValues>
            -4.1509759426116943e-01 6.9067519903182983e-01</leafValues></_>
        <_>
          <internalNodes>
            0 -1 45 885735793 1422393866 562090325 -2079733676
            -243142611 -838860160 662866028 1737221097</internalNodes>
          <leafValues>
            -6.1360943317413330e-01 4.8304727673530579e-01</leafValues></_>
        <_>
          <internalNodes>
            0 -1 3 -1832939597 -537509925 -16797828 -605368640
            -1098914553 -184780034 754742937 -750058</internalNodes>
          <leafValues>
            -5.0407010316848755e-01 6.1438876390457153e-01</leafValues></_></weakClassifiers></_>
    <!-- stage 19 -->
    <_>
      <maxWeakCount>7</maxWeakCount>
      <stageThreshold>-9.9046999216079712e-01</stageThreshold>
      <weakClassifiers>
        <_>
          <internalNodes>
            0 -1 36 -2141993298 167788872 -527392366 1431376181
            -1149136454 -1941946365 -1475616086 1601898711</internalNodes>
          <leafValues>
            -6.5995526313781738e-01 2.9862174391746521e-01</leafValues></_>
        <_>
          <internalNodes>
            0 -1 77 1473237930 -752279511 1778417 1598101504 -1959222777
            1358965250 856347095 -549777125</internalNodes>
          <leafValues>
            -4.8141083121299744e-01 5.2108007669448853e-01</leafValues></_>
        <_>
          <internalNodes>
            0 -1 35 1883866301 589673222 -1584705136 -501230545
            -149907176 -13828084 -1829606366 353735323</internalNodes>
          <leafValues>
            -6.2613606452941895e-01 4.1479066014289856e-01</leafValues></_>
        <_>
          <internalNodes>
            0 -1 38 540529109 -1860354037 1091801096 -1735106531 8528285
            -2142207999 -535960384 -218749822</internalNodes>
          <leafValues>
            -5.4426085948944092e-01 5.3988742828369141e-01</leafValues></_>
        <_>
          <internalNodes>
            0 -1 103 -1034712838 -1459158912 1342193664 -1652195070
            -1559986117 1812004992 440529814 -66486035</internalNodes>
          <leafValues>
            -5.9260499477386475e-01 5.3347671031951904e-01</leafValues></_>
        <_>
          <internalNodes>
            0 -1 84 -2129616700 323556112 -2050379437 487064107
            -1593669126 -1668831150 -1709984951 139403437</internalNodes>
          <leafValues>
            -6.0245108604431152e-01 5.0292384624481201e-01</leafValues></_>
        <_>
          <internalNodes>
            0 -1 0 1158894483 206803344 -1005944808 846467610
            -2004587376 -352286174 1258543852 -808040746</internalNodes>
          <leafValues>
            -5.7080054283142090e-01 5.3704649209976196e-01</leafValues></_></weakClassifiers></_></stages>
  <features>
    <_>
      <rect>
        2 41 6 3</rect></_>
    <_>
      <rect>
        3 27 13 11</rect></_>
    <_>
      <rect>
        3 29 13 10</rect></_>
    <_>
      <rect>
        4 11 14 10</rect></_>
    <_>
      <rect>
        4 26 16 11</rect></_>
    <_>
      <rect>
        4 30 12 7</rect></_>
    <_>
      <rect>
        7 30 10 5</rect></_>
    <_>
      <rect>
        7 33 12 6</rect></_>
    <_>
      <rect>
        8 29 11 13</rect></_>
    <_>
      <rect>
        9 8 14 22</rect></_>
    <_>
      <rect>
        9 14 11 12</rect></_>
    <_>
      <rect>
        9 24 10 12</rect></_>
    <_>
      <rect>
        9 32 11 7</rect></_>
    <_>
      <rect>
        9 38 7 6</rect></_>
    <_>
      <rect>
        10 2 15 21</rect></_>
    <_>
      <rect>
        10 24 13 7</rect></_>
    <_>
      <rect>
        10 30 16 6</rect></_>
    <_>
      <rect>
        10 32 10 8</rect></_>
    <_>
      <rect>
        10 44 9 5</rect></_>
    <_>
      <rect>
        11 32 10 9</rect></_>
    <_>
      <rect>
        13 15 11 11</rect></_>
    <_>
      <rect>
        13 30 8 6</rect></_>
    <_>
      <rect>
        14 24 13 10</rect></_>
    <_>
      <rect>
        14 33 8 4</rect></_>
    <_>
      <rect>
        14 41 5 5</rect></_>
    <_>
      <rect>
        15 11 11 13</rect></_>
    <_>
      <rect>
        15 12 8 10</rect></_>
    <_>
      <rect>
        15 22 7 9</rect></_>
    <_>
      <rect>
        15 27 10 5</rect></_>
    <_>
      <rect>
        15 36 9 3</rect></_>
    <_>
      <rect>
        15 39 5 5</rect></_>
    <_>
      <rect>
        15 40 5 6</rect></_>
    <_>
      <rect>
        16 20 9 8</rect></_>
    <_>
      <rect>
        16 27 10 6</rect></_>
    <_>
      <rect>
        17 15 10 8</rect></_>
    <_>
      <rect>
        17 31 12 6</rect></_>
    <_>
      <rect>
        17 40 4 2</rect></_>
    <_>
      <rect>
        17 43 5 3</rect></_>
    <_>
      <rect>
        18 12 8 7</rect></_>
    <_>
      <rect>
        18 27 11 8</rect></_>
    <_>
      <rect>
        18 29 9 5</rect></_>
    <_>
      <rect>
        18 30 12 6</rect></_>
    <_>
      <rect>
        18 32 11 7</rect></_>
    <_>
      <rect>
        18 41 4 2</rect></_>
    <_>
      <rect>
        18 42 4 6</rect></_>
    <_>
      <rect>
        19 17 10 8</rect></_>
    <_>
      <rect>
        19 25 11 10</rect></_>
    <_>
      <rect>
        19 33 9 5</rect></_>
    <_>
      <rect>
        19 41 3 2</rect></_>
    <_>
      <rect>
        20 34 6 7</rect></_>
    <_>
      <rect>
        20 41 4 3</rect></_>
    <_>
      <rect>
        21 14 9 18</rect></_>
    <_>
      <rect>
        21 19 6 10</rect></_>
    <_>
      <rect>
        21 25 11 8</rect></_>
    <_>
      <rect>
        21 26 6 7</rect></_>
    <_>
      <rect>
        21 27 10 7</rect></_>
    <_>
      <rect>
        21 29 5 6</rect></_>
    <_>
      <rect>
        21 32 5 5</rect></_>
    <_>
      <rect>
        22 22 6 8</rect></_>
    <_>
      <rect>
        22 31 9 5</rect></_>
    <_>
      <rect>
        22 32 6 4</rect></_>
    <_>
      <rect>
        22 34 8 5</rect></_>
    <_>
      <rect>
        23 28 4 7</rect></_>
    <_>
      <rect>
        23 28 9 7</rect></_>
    <_>
      <rect>
        23 34 3 3</rect></_>
    <_>
      <rect>
        23 36 12 8</rect></_>
    <_>
      <rect>
        23 41 6 4</rect></_>
    <_>
      <rect>
        24 26 1 3</rect></_>
    <_>
      <rect>
        24 28 9 10</rect></_>
    <_>
      <rect>
        24 29 9 7</rect></_>
    <_>
      <rect>
        24 32 4 4</rect></_>
    <_>
      <rect>
        24 34 6 4</rect></_>
    <_>
      <rect>
        25 24 9 12</rect></_>
    <_>
      <rect>
        25 32 1 2</rect></_>
    <_>
      <rect>
        25 37 4 4</rect></_>
    <_>
      <rect>
        26 37 5 6</rect></_>
    <_>
      <rect>
        26 38 1 1</rect></_>
    <_>
      <rect>
        26 39 1 1</rect></_>
    <_>
      <rect>
        27 28 6 8</rect></_>
    <_>
      <rect>
        27 29 5 3</rect></_>
    <_>
      <rect>
        27 32 3 5</rect></_>
    <_>
      <rect>
        27 36 4 4</rect></_>
    <_>
      <rect>
        27 38 1 1</rect></_>
    <_>
      <rect>
        27 39 1 1</rect></_>
    <_>
      <rect>
        27 39 2 1</rect></_>
    <_>
      <rect>
        28 28 7 4</rect></_>
    <_>
      <rect>
        28 31 3 3</rect></_>
    <_>
      <rect>
        28 33 7 5</rect></_>
    <_>
      <rect>
        28 38 1 1</rect></_>
    <_>
      <rect>
        28 39 1 1</rect></_>
    <_>
      <rect>
        29 38 1 1</rect></_>
    <_>
      <rect>
        29 39 1 1</rect></_>
    <_>
      <rect>
        29 39 6 6</rect></_>
    <_>
      <rect>
        29 40 1 1</rect></_>
    <_>
      <rect>
        30 37 8 3</rect></_>
    <_>
      <rect>
        30 39 1 1</rect></_>
    <_>
      <rect>
        30 40 1 1</rect></_>
    <_>
      <rect>
        31 34 5 4</rect></_>
    <_>
      <rect>
        32 34 1 2</rect></_>
    <_>
      <rect>
        32 36 8 3</rect></_>
    <_>
      <rect>
        32 38 1 1</rect></_>
    <_>
      <rect>
        33 33 4 3</rect></_>
    <_>
      <rect>
        35 28 6 4</rect></_>
    <_>
      <rect>
        50 26 1 1</rect></_></features></cascade>
</opencv_storage>
